{
  "weights": [
    [
      0.01232950450683766,
      0.18105867222096314,
      -0.10611175420971171,
      -0.5593670534303128,
      -0.02693665928424875,
      0.14871432846774546,
      0.26388936451267575,
      -0.6510453676359056,
      -0.09161944173530139,
      0.2004935368575875,
      0.2239072372772923,
      -0.13197532360341002,
      0.4204706512222976,
      -0.4233090447632529,
      -0.028380529696402784,
      0.45512378191883524,
      0.10870070124888893,
      0.18664179075672443,
      -0.015364790195929255,
      -0.18600408295901733,
      0.14291292261378089,
      -0.13228891140022256,
      0.15115948399922624,
      -0.49943433735548115,
      0.4262014347975774,
      0.2593079081683732,
      0.4364307745394067,
      0.2096725445893421,
      0.6832500611312718,
      -0.02777419762072406,
      -0.185469528538445,
      -0.12522877402204907,
      0.08706141335448549,
      -0.18532916933537658,
      0.41048591422488584,
      -0.24087086740778896,
      0.2963617843618215,
      -0.15685102377846002,
      0.3606809075059804,
      -0.4023263000706715,
      -0.1931715915672811,
      -0.054502749581168575,
      0.37516055391266223,
      -0.17039290131492305,
      0.39409099726796865,
      -0.19483228122489082,
      0.6241543603648091,
      0.7400462973003327,
      0.09507691459748334,
      -0.19601143703671156,
      0.3452678230651982,
      -0.3896377667204472,
      0.5724881591160994,
      0.4671673068863129,
      -0.17681259293793364,
      -0.007802926971574518,
      0.15315375698709766,
      -0.1239603614784305,
      0.1570974293888498,
      -0.40226092688652254,
      0.1526770114089258,
      -0.4706697552392128,
      -0.38825021440450364,
      0.30804005410626584,
      0.19447102049016163,
      -0.19493957942231827,
      0.5409372542326156,
      -0.07609445629080261,
      -0.057580476009865156,
      0.2390844234582955,
      -0.05034250847252514,
      -0.1518011498397258,
      -0.08720217817252386,
      -0.3493548699770662,
      -0.1991709315696867,
      0.1766971335209772,
      0.40181790542453244,
      -0.3570965864015802,
      -0.23813845213705745,
      0.004108583387906316,
      -0.018054756083666364,
      -0.2072675721604156,
      -0.025473201883456725,
      -0.6470758201792389,
      -0.4038147028653612,
      0.146131133265372,
      -0.3775758710068024,
      -0.5215257447339271,
      -0.41131645345944606,
      0.009563815798230655,
      0.3055047181190257,
      0.28012414526476587,
      -0.03829717907635273,
      -0.08276822452633043,
      -0.07176300785338634,
      0.3394569593815465,
      0.25220936901455093,
      0.38759269262422336,
      -0.08178302944480104,
      0.10462730453468559,
      0.028938300535376882,
      -0.06433637282170913,
      -0.18379800493683116,
      0.052239668112152825,
      -0.01696146403578382,
      0.27509042489623925,
      -0.2128092114792489,
      -0.5634695489026909,
      -0.12368359440693727,
      0.17577063142536115,
      -0.1995127625334491,
      -0.055251408289826935,
      0.13183944267452044,
      0.17236687619808147,
      0.2247983306841969,
      -0.29331514328686853,
      -0.6837976231260633,
      -0.18988335635878736,
      -0.05046703368399053,
      -0.10058985638797983,
      -0.19855925443765374,
      -0.260348720679808,
      -0.1665235160397878,
      -0.015350656280462147,
      0.10165396987453201,
      0.04231345570713346,
      -0.0314072392330256,
      -0.041151233109940864,
      0.0452881857134556,
      0.15744191652065068,
      -0.42862138012106316,
      0.22773667620439658,
      -0.0847753086959527,
      -0.4538784140906461,
      0.14197227988172065
    ],
    [
      -0.17024153221539196,
      -0.2634444446857654,
      0.1992681229212551,
      0.9732224743728922,
      0.12402268459428666,
      -0.08293277425448041,
      -0.3148860300684247,
      0.5919009283686973,
      0.07553578359667318,
      -0.024860879490304143,
      -0.7040658440500993,
      0.4252485005974343,
      -0.3746296820226356,
      0.40966818584197634,
      -0.0083229738463773,
      -0.24292125322539593,
      0.0809377376337906,
      -0.321423016801101,
      0.11615132823063286,
      0.2522157745233802,
      -0.3564575647731664,
      0.23672263052468728,
      -0.15298792471904094,
      0.5273071164894692,
      -0.12146873364769399,
      -0.6289787982956974,
      -0.19026826484832188,
      -0.004035083668984375,
      -0.6756050296554793,
      0.13560081908700086,
      0.2367047913152747,
      0.47716233770627087,
      -0.13964003848314474,
      0.1869321501977981,
      -0.2504104991409216,
      0.21002750853619578,
      0.30157343013260934,
      0.3022739171095892,
      -0.3527006741954556,
      0.3998269415623715,
      0.08392004135008292,
      0.2638850298993211,
      -0.46035676300173595,
      0.1924615900601325,
      -0.2528067169168201,
      0.23897450067639167,
      -0.36951528554513574,
      -0.5231496944116788,
      -0.06947176554847571,
      0.23075986805913937,
      -0.32957476067453517,
      0.5044368336130353,
      -0.6714812266745422,
      -0.5231022868264816,
      0.12247848911102045,
      -0.1724282515783849,
      -0.10820067877743848,
      0.06282891211151997,
      -0.15504619555649443,
      0.3234134527255079,
      0.009904008647425987,
      0.5808078792612678,
      0.7007459397658066,
      -0.2549025546769979,
      -0.14551066000499072,
      0.16401653541428596,
      -0.3489662650383566,
      0.04926492823401854,
      0.05182131676675997,
      -0.38254616979407696,
      -0.11294397812576333,
      0.4073169648900466,
      0.08674655544381732,
      0.31874262197440417,
      0.35973146416512575,
      -0.13826025592263025,
      -0.5049976721210698,
      -0.014031340536957154,
      -0.041942847906108784,
      -0.2526874646225525,
      -0.11577472126153092,
      0.282386522284659,
      -0.3217001893848781,
      0.4150619709472364,
      0.13500571252264987,
      -0.04672982410941595,
      0.15176208741511826,
      0.21492000205357112,
      0.16693961689325335,
      -0.27418937123472986,
      -0.6650872184262997,
      -0.5956666100159144,
      -0.17358583669255684,
      -0.07805547587101376,
      0.038808934691277525,
      -0.39539819312506025,
      -0.42146827285901284,
      -0.5862501177901721,
      -0.11522972511000719,
      -0.5492100844177336,
      -0.2589438595507769,
      -0.39927317980297794,
      -0.3616991643665484,
      -0.4108816799253019,
      -0.5102147042610637,
      -0.5346651460576182,
      0.06546536268076403,
      0.4200794412075141,
      -0.11837825031644927,
      -0.2041331059466568,
      -0.04356184749457815,
      -0.25677225364186607,
      -0.3381576994347238,
      -0.2733019522758062,
      -0.453626105339226,
      0.23529738006227188,
      0.5835381642236962,
      0.06339221002840227,
      -0.06718088949405104,
      -0.02840063268077892,
      -0.01616164676964992,
      0.2947448528872442,
      0.06909403908897138,
      -0.0009631132954422501,
      -0.13656130676946815,
      -0.2010270268131757,
      -0.16396052928814273,
      0.15024886345943853,
      -0.0578701930538873,
      -0.18421946053636068,
      0.3221067921353747,
      -0.36875069108292047,
      -0.026914652483243377,
      0.47918185760733656,
      -0.2058342169908498
    ],
    [
      0.15791202770855461,
      0.08238577246480287,
      -0.0931563687115437,
      -0.41385542094257777,
      -0.09708602531003672,
      -0.06578155421326395,
      0.05099666555574822,
      0.05914443926720853,
      0.01608365813862899,
      -0.17563265736728242,
      0.48015860677280553,
      -0.29327317699402516,
      -0.04584096919966168,
      0.013640858921276661,
      0.036703503542780604,
      -0.21220252869344,
      -0.18963843888267956,
      0.13478122604437684,
      -0.10078653803470371,
      -0.06621169156436275,
      0.21354464215938646,
      -0.10443371912446525,
      0.0018284407198140618,
      -0.027872779133989257,
      -0.30473270114988044,
      0.36967089012732546,
      -0.24616250969108355,
      -0.2056374609203576,
      -0.007645031475792366,
      -0.10782662146627595,
      -0.051235262776828897,
      -0.35193356368422235,
      0.05257862512865933,
      -0.0016029808624219268,
      -0.1600754150839659,
      0.03084335887159426,
      -0.5979352144944315,
      -0.14542289333112743,
      -0.007980233310524677,
      0.0024993585083009583,
      0.10925155021719682,
      -0.2093822803181512,
      0.08519620908907577,
      -0.02206868874521055,
      -0.14128428035114882,
      -0.044142219451500826,
      -0.2546390748196736,
      -0.2168966028886541,
      -0.025605149049008423,
      -0.0347484310224278,
      -0.015693062390662097,
      -0.11479906689258673,
      0.0989930675584461,
      0.055934979940167426,
      0.054334103826913456,
      0.18023117854995932,
      -0.04495307820965767,
      0.061131449366911554,
      -0.0020512338323563834,
      0.07884747416101359,
      -0.1625810200563513,
      -0.11013812402205553,
      -0.31249572536130105,
      -0.053137499429267564,
      -0.048960360485170364,
      0.030923044008033827,
      -0.19197098919425792,
      0.026829528056785068,
      0.005759159243105237,
      0.1434617463357812,
      0.16328648659828865,
      -0.2555158150503203,
      0.00045562272870671534,
      0.03061224800266116,
      -0.16056053259543956,
      -0.03843687759834834,
      0.10317976669653325,
      0.37112792693853636,
      0.28008130004316634,
      0.2485788812346463,
      0.13382947734519546,
      -0.07511895012424427,
      0.347173391268334,
      0.23201384923200216,
      0.2688089903427098,
      -0.09940130915595671,
      0.22581378359168414,
      0.3066057426803555,
      0.24437683656619347,
      0.2646255554364983,
      0.35958250030727357,
      0.31554246475115055,
      0.21188301576890914,
      0.16082370039734437,
      0.032954073162108556,
      0.05594123374351486,
      0.16925890384446338,
      0.19865742516594684,
      0.19701275455480732,
      0.4445827798830511,
      0.23000555901539907,
      0.4636095526246883,
      0.5454971693033772,
      0.3586420118131461,
      0.5271761682968468,
      0.2595747211613823,
      0.147343848798485,
      0.14339010769517865,
      0.24206184472338652,
      0.028362474521296425,
      0.24307461002802813,
      0.3120236619316943,
      0.20631825676020374,
      0.10093507607772582,
      0.22882777465502918,
      0.05801776322459846,
      0.10025945890236793,
      0.1264911463303862,
      0.1176479231780419,
      0.1289904890687594,
      0.21472090120730425,
      -0.03439613220743544,
      0.09742947695081727,
      0.01631376957590531,
      0.03490733689493601,
      0.158713571106043,
      0.19536776852116913,
      -0.10909763034949695,
      0.012582007340432329,
      0.026777544015711325,
      0.10651458798568994,
      0.1410140148785249,
      0.11168996117919744,
      -0.02530344351669007,
      0.06386193710913042
    ]
  ],
  "biases": [
    1.5311242099362723,
    -3.152301839911918,
    1.6211776299756429
  ],
  "labels": [
    "D-CI",
    "D-NCI",
    "HC"
  ]
}